digraph Tree {
node [shape=box] ;
0 [label="sex <= 0.5\ngini = 0.5\nsamples = 464\nvalue = [230, 234]"] ;
1 [label="fare <= 26.269\ngini = 0.397\nsamples = 267\nvalue = [194, 73]"] ;
0 -> 1 [labeldistance=2.5, labelangle=45, headlabel="True"] ;
2 [label="age <= 13.5\ngini = 0.281\nsamples = 213\nvalue = [177, 36]"] ;
1 -> 2 ;
3 [label="gini = 0.0\nsamples = 11\nvalue = [0, 11]"] ;
2 -> 3 ;
4 [label="age <= 57.0\ngini = 0.217\nsamples = 202\nvalue = [177, 25]"] ;
2 -> 4 ;
5 [label="fare <= 9.673\ngini = 0.21\nsamples = 201\nvalue = [177, 24]"] ;
4 -> 5 ;
6 [label="age <= 26.5\ngini = 0.252\nsamples = 122\nvalue = [104, 18]"] ;
5 -> 6 ;
7 [label="sibsp <= 0.5\ngini = 0.159\nsamples = 69\nvalue = [63, 6]"] ;
6 -> 7 ;
8 [label="age <= 16.5\ngini = 0.123\nsamples = 61\nvalue = [57, 4]"] ;
7 -> 8 ;
9 [label="fare <= 7.913\ngini = 0.444\nsamples = 3\nvalue = [2, 1]"] ;
8 -> 9 ;
10 [label="gini = 0.0\nsamples = 1\nvalue = [1, 0]"] ;
9 -> 10 ;
11 [label="gini = 0.5\nsamples = 2\nvalue = [1, 1]"] ;
9 -> 11 ;
12 [label="fare <= 7.185\ngini = 0.098\nsamples = 58\nvalue = [55, 3]"] ;
8 -> 12 ;
13 [label="fare <= 7.133\ngini = 0.198\nsamples = 9\nvalue = [8, 1]"] ;
12 -> 13 ;
14 [label="gini = 0.0\nsamples = 8\nvalue = [8, 0]"] ;
13 -> 14 ;
15 [label="gini = 0.0\nsamples = 1\nvalue = [0, 1]"] ;
13 -> 15 ;
16 [label="age <= 21.5\ngini = 0.078\nsamples = 49\nvalue = [47, 2]"] ;
12 -> 16 ;
17 [label="fare <= 7.785\ngini = 0.153\nsamples = 24\nvalue = [22, 2]"] ;
16 -> 17 ;
18 [label="gini = 0.0\nsamples = 7\nvalue = [7, 0]"] ;
17 -> 18 ;
19 [label="fare <= 7.825\ngini = 0.208\nsamples = 17\nvalue = [15, 2]"] ;
17 -> 19 ;
20 [label="age <= 19.5\ngini = 0.5\nsamples = 2\nvalue = [1, 1]"] ;
19 -> 20 ;
21 [label="gini = 0.0\nsamples = 1\nvalue = [1, 0]"] ;
20 -> 21 ;
22 [label="gini = 0.0\nsamples = 1\nvalue = [0, 1]"] ;
20 -> 22 ;
23 [label="age <= 19.5\ngini = 0.124\nsamples = 15\nvalue = [14, 1]"] ;
19 -> 23 ;
24 [label="fare <= 8.104\ngini = 0.219\nsamples = 8\nvalue = [7, 1]"] ;
23 -> 24 ;
25 [label="fare <= 7.973\ngini = 0.444\nsamples = 3\nvalue = [2, 1]"] ;
24 -> 25 ;
26 [label="gini = 0.0\nsamples = 1\nvalue = [1, 0]"] ;
25 -> 26 ;
27 [label="gini = 0.5\nsamples = 2\nvalue = [1, 1]"] ;
25 -> 27 ;
28 [label="gini = 0.0\nsamples = 5\nvalue = [5, 0]"] ;
24 -> 28 ;
29 [label="gini = 0.0\nsamples = 7\nvalue = [7, 0]"] ;
23 -> 29 ;
30 [label="gini = 0.0\nsamples = 25\nvalue = [25, 0]"] ;
16 -> 30 ;
31 [label="age <= 19.0\ngini = 0.375\nsamples = 8\nvalue = [6, 2]"] ;
7 -> 31 ;
32 [label="gini = 0.0\nsamples = 3\nvalue = [3, 0]"] ;
31 -> 32 ;
33 [label="age <= 25.5\ngini = 0.48\nsamples = 5\nvalue = [3, 2]"] ;
31 -> 33 ;
34 [label="fare <= 7.85\ngini = 0.444\nsamples = 3\nvalue = [1, 2]"] ;
33 -> 34 ;
35 [label="gini = 0.5\nsamples = 2\nvalue = [1, 1]"] ;
34 -> 35 ;
36 [label="gini = 0.0\nsamples = 1\nvalue = [0, 1]"] ;
34 -> 36 ;
37 [label="gini = 0.0\nsamples = 2\nvalue = [2, 0]"] ;
33 -> 37 ;
38 [label="age <= 27.5\ngini = 0.35\nsamples = 53\nvalue = [41, 12]"] ;
6 -> 38 ;
39 [label="gini = 0.0\nsamples = 3\nvalue = [0, 3]"] ;
38 -> 39 ;
40 [label="fare <= 7.7\ngini = 0.295\nsamples = 50\nvalue = [41, 9]"] ;
38 -> 40 ;
41 [label="gini = 0.0\nsamples = 11\nvalue = [11, 0]"] ;
40 -> 41 ;
42 [label="age <= 28.5\ngini = 0.355\nsamples = 39\nvalue = [30, 9]"] ;
40 -> 42 ;
43 [label="gini = 0.0\nsamples = 5\nvalue = [5, 0]"] ;
42 -> 43 ;
44 [label="age <= 31.5\ngini = 0.389\nsamples = 34\nvalue = [25, 9]"] ;
42 -> 44 ;
45 [label="fare <= 9.492\ngini = 0.496\nsamples = 11\nvalue = [6, 5]"] ;
44 -> 45 ;
46 [label="fare <= 7.988\ngini = 0.444\nsamples = 9\nvalue = [6, 3]"] ;
45 -> 46 ;
47 [label="fare <= 7.885\ngini = 0.5\nsamples = 6\nvalue = [3, 3]"] ;
46 -> 47 ;
48 [label="fare <= 7.763\ngini = 0.375\nsamples = 4\nvalue = [3, 1]"] ;
47 -> 48 ;
49 [label="age <= 30.0\ngini = 0.5\nsamples = 2\nvalue = [1, 1]"] ;
48 -> 49 ;
50 [label="gini = 0.0\nsamples = 1\nvalue = [0, 1]"] ;
49 -> 50 ;
51 [label="gini = 0.0\nsamples = 1\nvalue = [1, 0]"] ;
49 -> 51 ;
52 [label="gini = 0.0\nsamples = 2\nvalue = [2, 0]"] ;
48 -> 52 ;
53 [label="gini = 0.0\nsamples = 2\nvalue = [0, 2]"] ;
47 -> 53 ;
54 [label="gini = 0.0\nsamples = 3\nvalue = [3, 0]"] ;
46 -> 54 ;
55 [label="gini = 0.0\nsamples = 2\nvalue = [0, 2]"] ;
45 -> 55 ;
56 [label="age <= 38.5\ngini = 0.287\nsamples = 23\nvalue = [19, 4]"] ;
44 -> 56 ;
57 [label="age <= 32.5\ngini = 0.133\nsamples = 14\nvalue = [13, 1]"] ;
56 -> 57 ;
58 [label="fare <= 7.988\ngini = 0.375\nsamples = 4\nvalue = [3, 1]"] ;
57 -> 58 ;
59 [label="gini = 0.0\nsamples = 3\nvalue = [3, 0]"] ;
58 -> 59 ;
60 [label="gini = 0.0\nsamples = 1\nvalue = [0, 1]"] ;
58 -> 60 ;
61 [label="gini = 0.0\nsamples = 10\nvalue = [10, 0]"] ;
57 -> 61 ;
62 [label="fare <= 7.91\ngini = 0.444\nsamples = 9\nvalue = [6, 3]"] ;
56 -> 62 ;
63 [label="gini = 0.0\nsamples = 2\nvalue = [2, 0]"] ;
62 -> 63 ;
64 [label="fare <= 8.356\ngini = 0.49\nsamples = 7\nvalue = [4, 3]"] ;
62 -> 64 ;
65 [label="age <= 44.5\ngini = 0.48\nsamples = 5\nvalue = [2, 3]"] ;
64 -> 65 ;
66 [label="fare <= 7.988\ngini = 0.5\nsamples = 4\nvalue = [2, 2]"] ;
65 -> 66 ;
67 [label="age <= 41.5\ngini = 0.444\nsamples = 3\nvalue = [1, 2]"] ;
66 -> 67 ;
68 [label="gini = 0.5\nsamples = 2\nvalue = [1, 1]"] ;
67 -> 68 ;
69 [label="gini = 0.0\nsamples = 1\nvalue = [0, 1]"] ;
67 -> 69 ;
70 [label="gini = 0.0\nsamples = 1\nvalue = [1, 0]"] ;
66 -> 70 ;
71 [label="gini = 0.0\nsamples = 1\nvalue = [0, 1]"] ;
65 -> 71 ;
72 [label="gini = 0.0\nsamples = 2\nvalue = [2, 0]"] ;
64 -> 72 ;
73 [label="age <= 20.5\ngini = 0.14\nsamples = 79\nvalue = [73, 6]"] ;
5 -> 73 ;
74 [label="age <= 19.5\ngini = 0.245\nsamples = 14\nvalue = [12, 2]"] ;
73 -> 74 ;
75 [label="fare <= 11.0\ngini = 0.153\nsamples = 12\nvalue = [11, 1]"] ;
74 -> 75 ;
76 [label="fare <= 10.335\ngini = 0.375\nsamples = 4\nvalue = [3, 1]"] ;
75 -> 76 ;
77 [label="gini = 0.0\nsamples = 1\nvalue = [1, 0]"] ;
76 -> 77 ;
78 [label="age <= 17.5\ngini = 0.444\nsamples = 3\nvalue = [2, 1]"] ;
76 -> 78 ;
79 [label="gini = 0.0\nsamples = 1\nvalue = [1, 0]"] ;
78 -> 79 ;
80 [label="gini = 0.5\nsamples = 2\nvalue = [1, 1]"] ;
78 -> 80 ;
81 [label="gini = 0.0\nsamples = 8\nvalue = [8, 0]"] ;
75 -> 81 ;
82 [label="parch <= 0.5\ngini = 0.5\nsamples = 2\nvalue = [1, 1]"] ;
74 -> 82 ;
83 [label="gini = 0.0\nsamples = 1\nvalue = [1, 0]"] ;
82 -> 83 ;
84 [label="gini = 0.0\nsamples = 1\nvalue = [0, 1]"] ;
82 -> 84 ;
85 [label="fare <= 18.294\ngini = 0.116\nsamples = 65\nvalue = [61, 4]"] ;
73 -> 85 ;
86 [label="age <= 41.25\ngini = 0.078\nsamples = 49\nvalue = [47, 2]"] ;
85 -> 86 ;
87 [label="age <= 30.5\ngini = 0.045\nsamples = 43\nvalue = [42, 1]"] ;
86 -> 87 ;
88 [label="gini = 0.0\nsamples = 27\nvalue = [27, 0]"] ;
87 -> 88 ;
89 [label="age <= 31.5\ngini = 0.117\nsamples = 16\nvalue = [15, 1]"] ;
87 -> 89 ;
90 [label="fare <= 11.75\ngini = 0.5\nsamples = 2\nvalue = [1, 1]"] ;
89 -> 90 ;
91 [label="gini = 0.0\nsamples = 1\nvalue = [1, 0]"] ;
90 -> 91 ;
92 [label="gini = 0.0\nsamples = 1\nvalue = [0, 1]"] ;
90 -> 92 ;
93 [label="gini = 0.0\nsamples = 14\nvalue = [14, 0]"] ;
89 -> 93 ;
94 [label="age <= 43.0\ngini = 0.278\nsamples = 6\nvalue = [5, 1]"] ;
86 -> 94 ;
95 [label="gini = 0.5\nsamples = 2\nvalue = [1, 1]"] ;
94 -> 95 ;
96 [label="gini = 0.0\nsamples = 4\nvalue = [4, 0]"] ;
94 -> 96 ;
97 [label="fare <= 19.656\ngini = 0.219\nsamples = 16\nvalue = [14, 2]"] ;
85 -> 97 ;
98 [label="gini = 0.0\nsamples = 1\nvalue = [0, 1]"] ;
97 -> 98 ;
99 [label="fare <= 25.075\ngini = 0.124\nsamples = 15\nvalue = [14, 1]"] ;
97 -> 99 ;
100 [label="gini = 0.0\nsamples = 8\nvalue = [8, 0]"] ;
99 -> 100 ;
101 [label="sibsp <= 0.5\ngini = 0.245\nsamples = 7\nvalue = [6, 1]"] ;
99 -> 101 ;
102 [label="gini = 0.0\nsamples = 3\nvalue = [3, 0]"] ;
101 -> 102 ;
103 [label="age <= 31.5\ngini = 0.375\nsamples = 4\nvalue = [3, 1]"] ;
101 -> 103 ;
104 [label="gini = 0.0\nsamples = 2\nvalue = [2, 0]"] ;
103 -> 104 ;
105 [label="age <= 34.5\ngini = 0.5\nsamples = 2\nvalue = [1, 1]"] ;
103 -> 105 ;
106 [label="gini = 0.0\nsamples = 1\nvalue = [0, 1]"] ;
105 -> 106 ;
107 [label="gini = 0.0\nsamples = 1\nvalue = [1, 0]"] ;
105 -> 107 ;
108 [label="gini = 0.0\nsamples = 1\nvalue = [0, 1]"] ;
4 -> 108 ;
109 [label="fare <= 46.062\ngini = 0.431\nsamples = 54\nvalue = [17, 37]"] ;
1 -> 109 ;
110 [label="fare <= 26.775\ngini = 0.5\nsamples = 33\nvalue = [16, 17]"] ;
109 -> 110 ;
111 [label="age <= 58.0\ngini = 0.298\nsamples = 11\nvalue = [2, 9]"] ;
110 -> 111 ;
112 [label="age <= 43.5\ngini = 0.18\nsamples = 10\nvalue = [1, 9]"] ;
111 -> 112 ;
113 [label="gini = 0.0\nsamples = 7\nvalue = [0, 7]"] ;
112 -> 113 ;
114 [label="age <= 46.5\ngini = 0.444\nsamples = 3\nvalue = [1, 2]"] ;
112 -> 114 ;
115 [label="gini = 0.0\nsamples = 1\nvalue = [1, 0]"] ;
114 -> 115 ;
116 [label="gini = 0.0\nsamples = 2\nvalue = [0, 2]"] ;
114 -> 116 ;
117 [label="gini = 0.0\nsamples = 1\nvalue = [1, 0]"] ;
111 -> 117 ;
118 [label="fare <= 29.85\ngini = 0.463\nsamples = 22\nvalue = [14, 8]"] ;
110 -> 118 ;
119 [label="gini = 0.0\nsamples = 7\nvalue = [7, 0]"] ;
118 -> 119 ;
120 [label="age <= 32.25\ngini = 0.498\nsamples = 15\nvalue = [7, 8]"] ;
118 -> 120 ;
121 [label="pclass <= 2.5\ngini = 0.42\nsamples = 10\nvalue = [3, 7]"] ;
120 -> 121 ;
122 [label="fare <= 34.25\ngini = 0.245\nsamples = 7\nvalue = [1, 6]"] ;
121 -> 122 ;
123 [label="fare <= 31.75\ngini = 0.444\nsamples = 3\nvalue = [1, 2]"] ;
122 -> 123 ;
124 [label="gini = 0.0\nsamples = 2\nvalue = [0, 2]"] ;
123 -> 124 ;
125 [label="gini = 0.0\nsamples = 1\nvalue = [1, 0]"] ;
123 -> 125 ;
126 [label="gini = 0.0\nsamples = 4\nvalue = [0, 4]"] ;
122 -> 126 ;
127 [label="age <= 5.0\ngini = 0.444\nsamples = 3\nvalue = [2, 1]"] ;
121 -> 127 ;
128 [label="gini = 0.0\nsamples = 1\nvalue = [0, 1]"] ;
127 -> 128 ;
129 [label="gini = 0.0\nsamples = 2\nvalue = [2, 0]"] ;
127 -> 129 ;
130 [label="fare <= 31.137\ngini = 0.32\nsamples = 5\nvalue = [4, 1]"] ;
120 -> 130 ;
131 [label="pclass <= 1.5\ngini = 0.5\nsamples = 2\nvalue = [1, 1]"] ;
130 -> 131 ;
132 [label="gini = 0.0\nsamples = 1\nvalue = [0, 1]"] ;
131 -> 132 ;
133 [label="gini = 0.0\nsamples = 1\nvalue = [1, 0]"] ;
131 -> 133 ;
134 [label="gini = 0.0\nsamples = 3\nvalue = [3, 0]"] ;
130 -> 134 ;
135 [label="age <= 43.5\ngini = 0.091\nsamples = 21\nvalue = [1, 20]"] ;
109 -> 135 ;
136 [label="gini = 0.0\nsamples = 16\nvalue = [0, 16]"] ;
135 -> 136 ;
137 [label="age <= 46.5\ngini = 0.32\nsamples = 5\nvalue = [1, 4]"] ;
135 -> 137 ;
138 [label="gini = 0.0\nsamples = 1\nvalue = [1, 0]"] ;
137 -> 138 ;
139 [label="gini = 0.0\nsamples = 4\nvalue = [0, 4]"] ;
137 -> 139 ;
140 [label="pclass <= 2.5\ngini = 0.299\nsamples = 197\nvalue = [36, 161]"] ;
0 -> 140 [labeldistance=2.5, labelangle=-45, headlabel="False"] ;
141 [label="fare <= 28.856\ngini = 0.077\nsamples = 125\nvalue = [5, 120]"] ;
140 -> 141 ;
142 [label="fare <= 28.231\ngini = 0.177\nsamples = 51\nvalue = [5, 46]"] ;
141 -> 142 ;
143 [label="age <= 27.5\ngini = 0.147\nsamples = 50\nvalue = [4, 46]"] ;
142 -> 143 ;
144 [label="age <= 25.5\ngini = 0.255\nsamples = 20\nvalue = [3, 17]"] ;
143 -> 144 ;
145 [label="fare <= 13.396\ngini = 0.111\nsamples = 17\nvalue = [1, 16]"] ;
144 -> 145 ;
146 [label="age <= 20.5\ngini = 0.375\nsamples = 4\nvalue = [1, 3]"] ;
145 -> 146 ;
147 [label="gini = 0.0\nsamples = 2\nvalue = [0, 2]"] ;
146 -> 147 ;
148 [label="gini = 0.5\nsamples = 2\nvalue = [1, 1]"] ;
146 -> 148 ;
149 [label="gini = 0.0\nsamples = 13\nvalue = [0, 13]"] ;
145 -> 149 ;
150 [label="fare <= 17.429\ngini = 0.444\nsamples = 3\nvalue = [2, 1]"] ;
144 -> 150 ;
151 [label="gini = 0.0\nsamples = 1\nvalue = [0, 1]"] ;
150 -> 151 ;
152 [label="gini = 0.0\nsamples = 2\nvalue = [2, 0]"] ;
150 -> 152 ;
153 [label="age <= 37.0\ngini = 0.064\nsamples = 30\nvalue = [1, 29]"] ;
143 -> 153 ;
154 [label="gini = 0.0\nsamples = 19\nvalue = [0, 19]"] ;
153 -> 154 ;
155 [label="age <= 39.0\ngini = 0.165\nsamples = 11\nvalue = [1, 10]"] ;
153 -> 155 ;
156 [label="gini = 0.0\nsamples = 1\nvalue = [1, 0]"] ;
155 -> 156 ;
157 [label="gini = 0.0\nsamples = 10\nvalue = [0, 10]"] ;
155 -> 157 ;
158 [label="gini = 0.0\nsamples = 1\nvalue = [1, 0]"] ;
142 -> 158 ;
159 [label="gini = 0.0\nsamples = 74\nvalue = [0, 74]"] ;
141 -> 159 ;
160 [label="fare <= 20.8\ngini = 0.49\nsamples = 72\nvalue = [31, 41]"] ;
140 -> 160 ;
161 [label="age <= 16.5\ngini = 0.464\nsamples = 60\nvalue = [22, 38]"] ;
160 -> 161 ;
162 [label="fare <= 10.798\ngini = 0.219\nsamples = 16\nvalue = [2, 14]"] ;
161 -> 162 ;
163 [label="fare <= 7.802\ngini = 0.408\nsamples = 7\nvalue = [2, 5]"] ;
162 -> 163 ;
164 [label="gini = 0.0\nsamples = 4\nvalue = [0, 4]"] ;
163 -> 164 ;
165 [label="age <= 14.5\ngini = 0.444\nsamples = 3\nvalue = [2, 1]"] ;
163 -> 165 ;
166 [label="gini = 0.0\nsamples = 2\nvalue = [2, 0]"] ;
165 -> 166 ;
167 [label="gini = 0.0\nsamples = 1\nvalue = [0, 1]"] ;
165 -> 167 ;
168 [label="gini = 0.0\nsamples = 9\nvalue = [0, 9]"] ;
162 -> 168 ;
169 [label="parch <= 1.5\ngini = 0.496\nsamples = 44\nvalue = [20, 24]"] ;
161 -> 169 ;
170 [label="age <= 36.5\ngini = 0.5\nsamples = 40\nvalue = [20, 20]"] ;
169 -> 170 ;
171 [label="age <= 32.5\ngini = 0.499\nsamples = 38\nvalue = [18, 20]"] ;
170 -> 171 ;
172 [label="sibsp <= 0.5\ngini = 0.5\nsamples = 35\nvalue = [18, 17]"] ;
171 -> 172 ;
173 [label="fare <= 7.0\ngini = 0.476\nsamples = 23\nvalue = [9, 14]"] ;
172 -> 173 ;
174 [label="gini = 0.0\nsamples = 1\nvalue = [1, 0]"] ;
173 -> 174 ;
175 [label="fare <= 7.65\ngini = 0.463\nsamples = 22\nvalue = [8, 14]"] ;
173 -> 175 ;
176 [label="gini = 0.0\nsamples = 3\nvalue = [0, 3]"] ;
175 -> 176 ;
177 [label="fare <= 7.91\ngini = 0.488\nsamples = 19\nvalue = [8, 11]"] ;
175 -> 177 ;
178 [label="age <= 27.0\ngini = 0.496\nsamples = 11\nvalue = [6, 5]"] ;
177 -> 178 ;
179 [label="age <= 18.5\ngini = 0.469\nsamples = 8\nvalue = [3, 5]"] ;
178 -> 179 ;
180 [label="gini = 0.0\nsamples = 1\nvalue = [1, 0]"] ;
179 -> 180 ;
181 [label="fare <= 7.815\ngini = 0.408\nsamples = 7\nvalue = [2, 5]"] ;
179 -> 181 ;
182 [label="age <= 21.5\ngini = 0.48\nsamples = 5\nvalue = [2, 3]"] ;
181 -> 182 ;
183 [label="gini = 0.0\nsamples = 1\nvalue = [1, 0]"] ;
182 -> 183 ;
184 [label="age <= 23.5\ngini = 0.375\nsamples = 4\nvalue = [1, 3]"] ;
182 -> 184 ;
185 [label="gini = 0.0\nsamples = 3\nvalue = [0, 3]"] ;
184 -> 185 ;
186 [label="gini = 0.0\nsamples = 1\nvalue = [1, 0]"] ;
184 -> 186 ;
187 [label="gini = 0.0\nsamples = 2\nvalue = [0, 2]"] ;
181 -> 187 ;
188 [label="gini = 0.0\nsamples = 3\nvalue = [3, 0]"] ;
178 -> 188 ;
189 [label="fare <= 13.467\ngini = 0.375\nsamples = 8\nvalue = [2, 6]"] ;
177 -> 189 ;
190 [label="age <= 24.0\ngini = 0.245\nsamples = 7\nvalue = [1, 6]"] ;
189 -> 190 ;
191 [label="age <= 20.0\ngini = 0.444\nsamples = 3\nvalue = [1, 2]"] ;
190 -> 191 ;
192 [label="gini = 0.0\nsamples = 2\nvalue = [0, 2]"] ;
191 -> 192 ;
193 [label="gini = 0.0\nsamples = 1\nvalue = [1, 0]"] ;
191 -> 193 ;
194 [label="gini = 0.0\nsamples = 4\nvalue = [0, 4]"] ;
190 -> 194 ;
195 [label="gini = 0.0\nsamples = 1\nvalue = [1, 0]"] ;
189 -> 195 ;
196 [label="fare <= 7.89\ngini = 0.375\nsamples = 12\nvalue = [9, 3]"] ;
172 -> 196 ;
197 [label="gini = 0.0\nsamples = 1\nvalue = [0, 1]"] ;
196 -> 197 ;
198 [label="fare <= 19.262\ngini = 0.298\nsamples = 11\nvalue = [9, 2]"] ;
196 -> 198 ;
199 [label="fare <= 15.675\ngini = 0.18\nsamples = 10\nvalue = [9, 1]"] ;
198 -> 199 ;
200 [label="gini = 0.0\nsamples = 6\nvalue = [6, 0]"] ;
199 -> 200 ;
201 [label="fare <= 15.975\ngini = 0.375\nsamples = 4\nvalue = [3, 1]"] ;
199 -> 201 ;
202 [label="gini = 0.0\nsamples = 1\nvalue = [0, 1]"] ;
201 -> 202 ;
203 [label="gini = 0.0\nsamples = 3\nvalue = [3, 0]"] ;
201 -> 203 ;
204 [label="gini = 0.0\nsamples = 1\nvalue = [0, 1]"] ;
198 -> 204 ;
205 [label="gini = 0.0\nsamples = 3\nvalue = [0, 3]"] ;
171 -> 205 ;
206 [label="gini = 0.0\nsamples = 2\nvalue = [2, 0]"] ;
170 -> 206 ;
207 [label="gini = 0.0\nsamples = 4\nvalue = [0, 4]"] ;
169 -> 207 ;
208 [label="fare <= 31.331\ngini = 0.375\nsamples = 12\nvalue = [9, 3]"] ;
160 -> 208 ;
209 [label="age <= 6.0\ngini = 0.198\nsamples = 9\nvalue = [8, 1]"] ;
208 -> 209 ;
210 [label="sibsp <= 1.5\ngini = 0.5\nsamples = 2\nvalue = [1, 1]"] ;
209 -> 210 ;
211 [label="gini = 0.0\nsamples = 1\nvalue = [0, 1]"] ;
210 -> 211 ;
212 [label="gini = 0.0\nsamples = 1\nvalue = [1, 0]"] ;
210 -> 212 ;
213 [label="gini = 0.0\nsamples = 7\nvalue = [7, 0]"] ;
209 -> 213 ;
214 [label="fare <= 32.881\ngini = 0.444\nsamples = 3\nvalue = [1, 2]"] ;
208 -> 214 ;
215 [label="gini = 0.0\nsamples = 2\nvalue = [0, 2]"] ;
214 -> 215 ;
216 [label="gini = 0.0\nsamples = 1\nvalue = [1, 0]"] ;
214 -> 216 ;
}